digraph Tree {
node [shape=box] ;
0 [label="X[32] <= 0.5\ngini = 0.4303\nsamples = 300\nvalue = [94, 206]"] ;
1 [label="X[47] <= 17.5\ngini = 0.3596\nsamples = 234\nvalue = [55, 179]"] ;
0 -> 1 [labeldistance=2.5, labelangle=45, headlabel="True"] ;
2 [label="X[29] <= 0.5\ngini = 0.3378\nsamples = 223\nvalue = [48, 175]"] ;
1 -> 2 ;
3 [label="X[13] <= 0.5\ngini = 0.32\nsamples = 215\nvalue = [43, 172]"] ;
2 -> 3 ;
4 [label="X[12] <= 3.5\ngini = 0.2861\nsamples = 185\nvalue = [32, 153]"] ;
3 -> 4 ;
5 [label="X[17] <= 0.5\ngini = 0.3447\nsamples = 131\nvalue = [29, 102]"] ;
4 -> 5 ;
6 [label="X[3] <= 0.5\ngini = 0.2996\nsamples = 109\nvalue = [20, 89]"] ;
5 -> 6 ;
7 [label="X[45] <= 1.5\ngini = 0.3995\nsamples = 58\nvalue = [16, 42]"] ;
6 -> 7 ;
8 [label="X[43] <= 3.5\ngini = 0.4835\nsamples = 22\nvalue = [9, 13]"] ;
7 -> 8 ;
9 [label="X[47] <= 11.0\ngini = 0.3911\nsamples = 15\nvalue = [4, 11]"] ;
8 -> 9 ;
10 [label="X[42] <= 4.5\ngini = 0.3367\nsamples = 14\nvalue = [3, 11]"] ;
9 -> 10 ;
11 [label="X[34] <= 0.5\ngini = 0.2604\nsamples = 13\nvalue = [2, 11]"] ;
10 -> 11 ;
12 [label="X[47] <= 6.0\ngini = 0.48\nsamples = 5\nvalue = [2, 3]"] ;
11 -> 12 ;
13 [label="X[22] <= 0.5\ngini = 0.4444\nsamples = 3\nvalue = [2, 1]"] ;
12 -> 13 ;
14 [label="gini = 0.0\nsamples = 2\nvalue = [2, 0]"] ;
13 -> 14 ;
15 [label="gini = 0.0\nsamples = 1\nvalue = [0, 1]"] ;
13 -> 15 ;
16 [label="gini = 0.0\nsamples = 2\nvalue = [0, 2]"] ;
12 -> 16 ;
17 [label="gini = 0.0\nsamples = 8\nvalue = [0, 8]"] ;
11 -> 17 ;
18 [label="gini = 0.0\nsamples = 1\nvalue = [1, 0]"] ;
10 -> 18 ;
19 [label="gini = 0.0\nsamples = 1\nvalue = [1, 0]"] ;
9 -> 19 ;
20 [label="X[12] <= 1.5\ngini = 0.4082\nsamples = 7\nvalue = [5, 2]"] ;
8 -> 20 ;
21 [label="gini = 0.0\nsamples = 2\nvalue = [0, 2]"] ;
20 -> 21 ;
22 [label="gini = 0.0\nsamples = 5\nvalue = [5, 0]"] ;
20 -> 22 ;
23 [label="X[38] <= 0.5\ngini = 0.3133\nsamples = 36\nvalue = [7, 29]"] ;
7 -> 23 ;
24 [label="gini = 0.0\nsamples = 1\nvalue = [1, 0]"] ;
23 -> 24 ;
25 [label="X[46] <= 2.5\ngini = 0.2841\nsamples = 35\nvalue = [6, 29]"] ;
23 -> 25 ;
26 [label="X[26] <= 0.5\ngini = 0.48\nsamples = 10\nvalue = [4, 6]"] ;
25 -> 26 ;
27 [label="X[43] <= 3.5\ngini = 0.4444\nsamples = 6\nvalue = [4, 2]"] ;
26 -> 27 ;
28 [label="gini = 0.0\nsamples = 3\nvalue = [3, 0]"] ;
27 -> 28 ;
29 [label="X[6] <= 0.5\ngini = 0.4444\nsamples = 3\nvalue = [1, 2]"] ;
27 -> 29 ;
30 [label="gini = 0.0\nsamples = 1\nvalue = [1, 0]"] ;
29 -> 30 ;
31 [label="gini = 0.0\nsamples = 2\nvalue = [0, 2]"] ;
29 -> 31 ;
32 [label="gini = 0.0\nsamples = 4\nvalue = [0, 4]"] ;
26 -> 32 ;
33 [label="X[47] <= 3.5\ngini = 0.1472\nsamples = 25\nvalue = [2, 23]"] ;
25 -> 33 ;
34 [label="gini = 0.0\nsamples = 13\nvalue = [0, 13]"] ;
33 -> 34 ;
35 [label="X[15] <= 0.5\ngini = 0.2778\nsamples = 12\nvalue = [2, 10]"] ;
33 -> 35 ;
36 [label="X[36] <= 0.5\ngini = 0.48\nsamples = 5\nvalue = [2, 3]"] ;
35 -> 36 ;
37 [label="X[8] <= 0.5\ngini = 0.4444\nsamples = 3\nvalue = [2, 1]"] ;
36 -> 37 ;
38 [label="gini = 0.0\nsamples = 2\nvalue = [2, 0]"] ;
37 -> 38 ;
39 [label="gini = 0.0\nsamples = 1\nvalue = [0, 1]"] ;
37 -> 39 ;
40 [label="gini = 0.0\nsamples = 2\nvalue = [0, 2]"] ;
36 -> 40 ;
41 [label="gini = 0.0\nsamples = 7\nvalue = [0, 7]"] ;
35 -> 41 ;
42 [label="X[18] <= 0.5\ngini = 0.1446\nsamples = 51\nvalue = [4, 47]"] ;
6 -> 42 ;
43 [label="X[5] <= 0.5\ngini = 0.115\nsamples = 49\nvalue = [3, 46]"] ;
42 -> 43 ;
44 [label="X[45] <= 3.5\ngini = 0.0526\nsamples = 37\nvalue = [1, 36]"] ;
43 -> 44 ;
45 [label="gini = 0.0\nsamples = 28\nvalue = [0, 28]"] ;
44 -> 45 ;
46 [label="X[44] <= 1.5\ngini = 0.1975\nsamples = 9\nvalue = [1, 8]"] ;
44 -> 46 ;
47 [label="X[11] <= 3.5\ngini = 0.5\nsamples = 2\nvalue = [1, 1]"] ;
46 -> 47 ;
48 [label="gini = 0.0\nsamples = 1\nvalue = [1, 0]"] ;
47 -> 48 ;
49 [label="gini = 0.0\nsamples = 1\nvalue = [0, 1]"] ;
47 -> 49 ;
50 [label="gini = 0.0\nsamples = 7\nvalue = [0, 7]"] ;
46 -> 50 ;
51 [label="X[12] <= 1.5\ngini = 0.2778\nsamples = 12\nvalue = [2, 10]"] ;
43 -> 51 ;
52 [label="X[45] <= 3.5\ngini = 0.4444\nsamples = 3\nvalue = [2, 1]"] ;
51 -> 52 ;
53 [label="gini = 0.0\nsamples = 2\nvalue = [2, 0]"] ;
52 -> 53 ;
54 [label="gini = 0.0\nsamples = 1\nvalue = [0, 1]"] ;
52 -> 54 ;
55 [label="gini = 0.0\nsamples = 9\nvalue = [0, 9]"] ;
51 -> 55 ;
56 [label="X[36] <= 0.5\ngini = 0.5\nsamples = 2\nvalue = [1, 1]"] ;
42 -> 56 ;
57 [label="gini = 0.0\nsamples = 1\nvalue = [0, 1]"] ;
56 -> 57 ;
58 [label="gini = 0.0\nsamples = 1\nvalue = [1, 0]"] ;
56 -> 58 ;
59 [label="X[43] <= 3.5\ngini = 0.4835\nsamples = 22\nvalue = [9, 13]"] ;
5 -> 59 ;
60 [label="X[44] <= 2.5\ngini = 0.375\nsamples = 16\nvalue = [4, 12]"] ;
59 -> 60 ;
61 [label="X[37] <= 0.5\ngini = 0.32\nsamples = 15\nvalue = [3, 12]"] ;
60 -> 61 ;
62 [label="gini = 0.0\nsamples = 1\nvalue = [1, 0]"] ;
61 -> 62 ;
63 [label="X[42] <= 3.5\ngini = 0.2449\nsamples = 14\nvalue = [2, 12]"] ;
61 -> 63 ;
64 [label="gini = 0.0\nsamples = 8\nvalue = [0, 8]"] ;
63 -> 64 ;
65 [label="X[47] <= 4.0\ngini = 0.4444\nsamples = 6\nvalue = [2, 4]"] ;
63 -> 65 ;
66 [label="gini = 0.0\nsamples = 4\nvalue = [0, 4]"] ;
65 -> 66 ;
67 [label="gini = 0.0\nsamples = 2\nvalue = [2, 0]"] ;
65 -> 67 ;
68 [label="gini = 0.0\nsamples = 1\nvalue = [1, 0]"] ;
60 -> 68 ;
69 [label="X[45] <= 4.5\ngini = 0.2778\nsamples = 6\nvalue = [5, 1]"] ;
59 -> 69 ;
70 [label="gini = 0.0\nsamples = 5\nvalue = [5, 0]"] ;
69 -> 70 ;
71 [label="gini = 0.0\nsamples = 1\nvalue = [0, 1]"] ;
69 -> 71 ;
72 [label="X[18] <= 0.5\ngini = 0.1049\nsamples = 54\nvalue = [3, 51]"] ;
4 -> 72 ;
73 [label="X[38] <= 0.5\ngini = 0.0726\nsamples = 53\nvalue = [2, 51]"] ;
72 -> 73 ;
74 [label="gini = 0.0\nsamples = 1\nvalue = [1, 0]"] ;
73 -> 74 ;
75 [label="X[11] <= 2.5\ngini = 0.0377\nsamples = 52\nvalue = [1, 51]"] ;
73 -> 75 ;
76 [label="X[27] <= 0.5\ngini = 0.375\nsamples = 4\nvalue = [1, 3]"] ;
75 -> 76 ;
77 [label="gini = 0.0\nsamples = 1\nvalue = [1, 0]"] ;
76 -> 77 ;
78 [label="gini = 0.0\nsamples = 3\nvalue = [0, 3]"] ;
76 -> 78 ;
79 [label="gini = 0.0\nsamples = 48\nvalue = [0, 48]"] ;
75 -> 79 ;
80 [label="gini = 0.0\nsamples = 1\nvalue = [1, 0]"] ;
72 -> 80 ;
81 [label="X[11] <= 1.5\ngini = 0.4644\nsamples = 30\nvalue = [11, 19]"] ;
3 -> 81 ;
82 [label="X[36] <= 0.5\ngini = 0.1528\nsamples = 12\nvalue = [1, 11]"] ;
81 -> 82 ;
83 [label="gini = 0.0\nsamples = 9\nvalue = [0, 9]"] ;
82 -> 83 ;
84 [label="X[44] <= 1.5\ngini = 0.4444\nsamples = 3\nvalue = [1, 2]"] ;
82 -> 84 ;
85 [label="gini = 0.0\nsamples = 1\nvalue = [1, 0]"] ;
84 -> 85 ;
86 [label="gini = 0.0\nsamples = 2\nvalue = [0, 2]"] ;
84 -> 86 ;
87 [label="X[0] <= 0.5\ngini = 0.4938\nsamples = 18\nvalue = [10, 8]"] ;
81 -> 87 ;
88 [label="gini = 0.0\nsamples = 3\nvalue = [0, 3]"] ;
87 -> 88 ;
89 [label="X[43] <= 3.5\ngini = 0.4444\nsamples = 15\nvalue = [10, 5]"] ;
87 -> 89 ;
90 [label="X[2] <= 0.5\ngini = 0.4938\nsamples = 9\nvalue = [4, 5]"] ;
89 -> 90 ;
91 [label="gini = 0.0\nsamples = 2\nvalue = [2, 0]"] ;
90 -> 91 ;
92 [label="X[41] <= 3.5\ngini = 0.4082\nsamples = 7\nvalue = [2, 5]"] ;
90 -> 92 ;
93 [label="X[42] <= 2.0\ngini = 0.4444\nsamples = 3\nvalue = [2, 1]"] ;
92 -> 93 ;
94 [label="gini = 0.0\nsamples = 1\nvalue = [0, 1]"] ;
93 -> 94 ;
95 [label="gini = 0.0\nsamples = 2\nvalue = [2, 0]"] ;
93 -> 95 ;
96 [label="gini = 0.0\nsamples = 4\nvalue = [0, 4]"] ;
92 -> 96 ;
97 [label="gini = 0.0\nsamples = 6\nvalue = [6, 0]"] ;
89 -> 97 ;
98 [label="X[4] <= 16.5\ngini = 0.4688\nsamples = 8\nvalue = [5, 3]"] ;
2 -> 98 ;
99 [label="gini = 0.0\nsamples = 3\nvalue = [0, 3]"] ;
98 -> 99 ;
100 [label="gini = 0.0\nsamples = 5\nvalue = [5, 0]"] ;
98 -> 100 ;
101 [label="X[23] <= 0.5\ngini = 0.4628\nsamples = 11\nvalue = [7, 4]"] ;
1 -> 101 ;
102 [label="X[13] <= 0.5\ngini = 0.3457\nsamples = 9\nvalue = [7, 2]"] ;
101 -> 102 ;
103 [label="X[42] <= 4.5\ngini = 0.2188\nsamples = 8\nvalue = [7, 1]"] ;
102 -> 103 ;
104 [label="gini = 0.0\nsamples = 6\nvalue = [6, 0]"] ;
103 -> 104 ;
105 [label="X[10] <= 0.5\ngini = 0.5\nsamples = 2\nvalue = [1, 1]"] ;
103 -> 105 ;
106 [label="gini = 0.0\nsamples = 1\nvalue = [1, 0]"] ;
105 -> 106 ;
107 [label="gini = 0.0\nsamples = 1\nvalue = [0, 1]"] ;
105 -> 107 ;
108 [label="gini = 0.0\nsamples = 1\nvalue = [0, 1]"] ;
102 -> 108 ;
109 [label="gini = 0.0\nsamples = 2\nvalue = [0, 2]"] ;
101 -> 109 ;
110 [label="X[42] <= 1.5\ngini = 0.4835\nsamples = 66\nvalue = [39, 27]"] ;
0 -> 110 [labeldistance=2.5, labelangle=-45, headlabel="False"] ;
111 [label="gini = 0.0\nsamples = 5\nvalue = [0, 5]"] ;
110 -> 111 ;
112 [label="X[47] <= 2.5\ngini = 0.4612\nsamples = 61\nvalue = [39, 22]"] ;
110 -> 112 ;
113 [label="X[7] <= 0.5\ngini = 0.2659\nsamples = 19\nvalue = [16, 3]"] ;
112 -> 113 ;
114 [label="X[42] <= 3.5\ngini = 0.5\nsamples = 6\nvalue = [3, 3]"] ;
113 -> 114 ;
115 [label="gini = 0.0\nsamples = 2\nvalue = [2, 0]"] ;
114 -> 115 ;
116 [label="X[12] <= 1.5\ngini = 0.375\nsamples = 4\nvalue = [1, 3]"] ;
114 -> 116 ;
117 [label="gini = 0.0\nsamples = 3\nvalue = [0, 3]"] ;
116 -> 117 ;
118 [label="gini = 0.0\nsamples = 1\nvalue = [1, 0]"] ;
116 -> 118 ;
119 [label="gini = 0.0\nsamples = 13\nvalue = [13, 0]"] ;
113 -> 119 ;
120 [label="X[46] <= 3.5\ngini = 0.4955\nsamples = 42\nvalue = [23, 19]"] ;
112 -> 120 ;
121 [label="X[1] <= 0.5\ngini = 0.4654\nsamples = 19\nvalue = [7, 12]"] ;
120 -> 121 ;
122 [label="X[45] <= 3.5\ngini = 0.2604\nsamples = 13\nvalue = [2, 11]"] ;
121 -> 122 ;
123 [label="gini = 0.0\nsamples = 10\nvalue = [0, 10]"] ;
122 -> 123 ;
124 [label="X[7] <= 0.5\ngini = 0.4444\nsamples = 3\nvalue = [2, 1]"] ;
122 -> 124 ;
125 [label="gini = 0.0\nsamples = 1\nvalue = [0, 1]"] ;
124 -> 125 ;
126 [label="gini = 0.0\nsamples = 2\nvalue = [2, 0]"] ;
124 -> 126 ;
127 [label="X[31] <= 2.5\ngini = 0.2778\nsamples = 6\nvalue = [5, 1]"] ;
121 -> 127 ;
128 [label="gini = 0.0\nsamples = 5\nvalue = [5, 0]"] ;
127 -> 128 ;
129 [label="gini = 0.0\nsamples = 1\nvalue = [0, 1]"] ;
127 -> 129 ;
130 [label="X[47] <= 12.5\ngini = 0.4234\nsamples = 23\nvalue = [16, 7]"] ;
120 -> 130 ;
131 [label="X[47] <= 11.5\ngini = 0.497\nsamples = 13\nvalue = [6, 7]"] ;
130 -> 131 ;
132 [label="X[16] <= 0.5\ngini = 0.4959\nsamples = 11\nvalue = [6, 5]"] ;
131 -> 132 ;
133 [label="X[45] <= 3.5\ngini = 0.4082\nsamples = 7\nvalue = [2, 5]"] ;
132 -> 133 ;
134 [label="X[34] <= 0.5\ngini = 0.4444\nsamples = 3\nvalue = [2, 1]"] ;
133 -> 134 ;
135 [label="gini = 0.0\nsamples = 1\nvalue = [0, 1]"] ;
134 -> 135 ;
136 [label="gini = 0.0\nsamples = 2\nvalue = [2, 0]"] ;
134 -> 136 ;
137 [label="gini = 0.0\nsamples = 4\nvalue = [0, 4]"] ;
133 -> 137 ;
138 [label="gini = 0.0\nsamples = 4\nvalue = [4, 0]"] ;
132 -> 138 ;
139 [label="gini = 0.0\nsamples = 2\nvalue = [0, 2]"] ;
131 -> 139 ;
140 [label="gini = 0.0\nsamples = 10\nvalue = [10, 0]"] ;
130 -> 140 ;
}